<?xml version="1.0"?>
<opencv_storage>
<stage11>
  <maxWeakCount>7</maxWeakCount>
  <stageThreshold>-9.4573742151260376e-01</stageThreshold>
  <weakClassifiers>
    <_>
      <internalNodes>
        0 -1 121423 -8.9323475956916809e-02</internalNodes>
      <leafValues>
        6.5938866138458252e-01 -7.1830987930297852e-01</leafValues></_>
    <_>
      <internalNodes>
        0 -1 114383 -3.3177467994391918e-03</internalNodes>
      <leafValues>
        5.9067189693450928e-01 -4.2019027471542358e-01</leafValues></_>
    <_>
      <internalNodes>
        0 -1 2254 2.4596001952886581e-02</internalNodes>
      <leafValues>
        -2.9303014278411865e-01 8.0763942003250122e-01</leafValues></_>
    <_>
      <internalNodes>
        0 -1 52948 7.9170189565047622e-05</internalNodes>
      <leafValues>
        -5.2061426639556885e-01 3.9662310481071472e-01</leafValues></_>
    <_>
      <internalNodes>
        0 -1 162087 -2.2144019021652639e-04</internalNodes>
      <leafValues>
        -5.8847457170486450e-01 3.1685131788253784e-01</leafValues></_>
    <_>
      <internalNodes>
        0 -1 80121 3.9801665116101503e-04</internalNodes>
      <leafValues>
        -3.3314064145088196e-01 6.2082129716873169e-01</leafValues></_>
    <_>
      <internalNodes>
        0 -1 159067 7.6755890622735023e-03</internalNodes>
      <leafValues>
        -3.5500204563140869e-01 6.9313979148864746e-01</leafValues></_></weakClassifiers></stage11>
</opencv_storage>
