<?xml version="1.0"?>
<opencv_storage>
<stage0>
  <maxWeakCount>9</maxWeakCount>
  <stageThreshold>-1.1884424686431885e+00</stageThreshold>
  <weakClassifiers>
    <_>
      <internalNodes>
        0 -1 80579 -1.0373394936323166e-02</internalNodes>
      <leafValues>
        7.9894179105758667e-01 -4.5945945382118225e-01</leafValues></_>
    <_>
      <internalNodes>
        0 -1 2404 2.8444994240999222e-02</internalNodes>
      <leafValues>
        -4.4374448060989380e-01 7.1658140420913696e-01</leafValues></_>
    <_>
      <internalNodes>
        0 -1 156361 -2.5179546326398849e-02</internalNodes>
      <leafValues>
        9.4818454980850220e-01 -2.6338541507720947e-01</leafValues></_>
    <_>
      <internalNodes>
        0 -1 101649 -5.2378267049789429e-02</internalNodes>
      <leafValues>
        -7.3854589462280273e-01 3.9073732495307922e-01</leafValues></_>
    <_>
      <internalNodes>
        0 -1 120261 -2.6014267932623625e-03</internalNodes>
      <leafValues>
        5.8914029598236084e-01 -5.0880056619644165e-01</leafValues></_>
    <_>
      <internalNodes>
        0 -1 151667 1.4496094081550837e-03</internalNodes>
      <leafValues>
        -3.2514581084251404e-01 7.7139508724212646e-01</leafValues></_>
    <_>
      <internalNodes>
        0 -1 133298 5.9598302468657494e-03</internalNodes>
      <leafValues>
        2.6891636848449707e-01 -9.6590167284011841e-01</leafValues></_>
    <_>
      <internalNodes>
        0 -1 106206 -1.9613327458500862e-03</internalNodes>
      <leafValues>
        7.2391539812088013e-01 -3.6991709470748901e-01</leafValues></_>
    <_>
      <internalNodes>
        0 -1 59237 -9.8831451032310724e-04</internalNodes>
      <leafValues>
        5.2235668897628784e-01 -5.0213402509689331e-01</leafValues></_></weakClassifiers></stage0>
</opencv_storage>
