<?xml version="1.0"?>
<opencv_storage>
<stage9>
  <maxWeakCount>10</maxWeakCount>
  <stageThreshold>-9.4021296501159668e-01</stageThreshold>
  <weakClassifiers>
    <_>
      <internalNodes>
        0 -1 3317 2.9548259451985359e-02</internalNodes>
      <leafValues>
        -1.0526315867900848e-01 7.8378379344940186e-01</leafValues></_>
    <_>
      <internalNodes>
        0 -1 144958 -1.2613779306411743e-01</internalNodes>
      <leafValues>
        8.6198669672012329e-01 -1.7119827866554260e-01</leafValues></_>
    <_>
      <internalNodes>
        0 -1 146073 3.0348752625286579e-03</internalNodes>
      <leafValues>
        -4.2727366089820862e-01 4.2645087838172913e-01</leafValues></_>
    <_>
      <internalNodes>
        0 -1 49427 -5.2407342009246349e-03</internalNodes>
      <leafValues>
        4.7939318418502808e-01 -3.8366502523422241e-01</leafValues></_>
    <_>
      <internalNodes>
        0 -1 10391 -1.7551366239786148e-02</internalNodes>
      <leafValues>
        -7.6768326759338379e-01 2.6922479271888733e-01</leafValues></_>
    <_>
      <internalNodes>
        0 -1 2272 -3.7991948425769806e-02</internalNodes>
      <leafValues>
        8.9395248889923096e-01 -2.5549829006195068e-01</leafValues></_>
    <_>
      <internalNodes>
        0 -1 113948 1.6675525330356322e-05</internalNodes>
      <leafValues>
        -3.7350451946258545e-01 4.5739349722862244e-01</leafValues></_>
    <_>
      <internalNodes>
        0 -1 113220 2.4707484990358353e-02</internalNodes>
      <leafValues>
        1.9216500222682953e-01 -9.7398692369461060e-01</leafValues></_>
    <_>
      <internalNodes>
        0 -1 13016 -3.1920028850436211e-03</internalNodes>
      <leafValues>
        -2.3192614316940308e-01 8.8637340068817139e-01</leafValues></_>
    <_>
      <internalNodes>
        0 -1 128950 1.6390558448620141e-04</internalNodes>
      <leafValues>
        -3.0699819326400757e-01 5.0524121522903442e-01</leafValues></_></weakClassifiers></stage9>
</opencv_storage>
