<?xml version="1.0"?>
<opencv_storage>
<stage4>
  <maxWeakCount>10</maxWeakCount>
  <stageThreshold>-9.4452446699142456e-01</stageThreshold>
  <weakClassifiers>
    <_>
      <internalNodes>
        0 -1 108977 -3.5710584372282028e-02</internalNodes>
      <leafValues>
        8.7058824300765991e-01 -3.6923077702522278e-01</leafValues></_>
    <_>
      <internalNodes>
        0 -1 5996 1.5664529055356979e-02</internalNodes>
      <leafValues>
        -3.6489892005920410e-01 7.1750402450561523e-01</leafValues></_>
    <_>
      <internalNodes>
        0 -1 151056 -9.5943510532379150e-03</internalNodes>
      <leafValues>
        7.7785193920135498e-01 -3.2141557335853577e-01</leafValues></_>
    <_>
      <internalNodes>
        0 -1 142009 8.2013234496116638e-03</internalNodes>
      <leafValues>
        -3.3852371573448181e-01 6.8617063760757446e-01</leafValues></_>
    <_>
      <internalNodes>
        0 -1 11063 -1.9184157717972994e-03</internalNodes>
      <leafValues>
        8.0545794963836670e-01 -3.5759362578392029e-01</leafValues></_>
    <_>
      <internalNodes>
        0 -1 128178 -3.3239168114960194e-03</internalNodes>
      <leafValues>
        6.3491463661193848e-01 -3.8253745436668396e-01</leafValues></_>
    <_>
      <internalNodes>
        0 -1 155000 1.2392478995025158e-02</internalNodes>
      <leafValues>
        -2.8398326039314270e-01 8.2448726892471313e-01</leafValues></_>
    <_>
      <internalNodes>
        0 -1 12664 2.9744986444711685e-02</internalNodes>
      <leafValues>
        -3.0234536528587341e-01 7.3282974958419800e-01</leafValues></_>
    <_>
      <internalNodes>
        0 -1 139149 7.8619377745781094e-05</internalNodes>
      <leafValues>
        3.1677952408790588e-01 -7.3473942279815674e-01</leafValues></_>
    <_>
      <internalNodes>
        0 -1 80118 -2.2620748495683074e-05</internalNodes>
      <leafValues>
        4.3453034758567810e-01 -5.2487003803253174e-01</leafValues></_></weakClassifiers></stage4>
</opencv_storage>
